{
  "layers": [
    {
      "activation": 3,
      "biases": [
        3.958886451345598,
        0.5018122602068035,
        -1.1211622537904145
      ],
      "cols": 3,
      "rows": 44,
      "weights": [
        [
          -1.0504953523249279,
          0.03461926103052358,
          0.666073937404022
        ],
        [
          -2.557502953909013,
          -2.224168398025626,
          4.519302818559064
        ],
        [
          -0.12181611571284269,
          0.5981509617125486,
          -0.782941571732827
        ],
        [
          0.3935523104288733,
          -0.11837722925198242,
          0.7108994113334427
        ],
        [
          -1.2187714717818945,
          -0.41780973594059545,
          -0.45771416032222734
        ],
        [
          0.8713327407475288,
          -0.27951425844362193,
          1.2872117100143101
        ],
        [
          1.3467901343801452,
          0.7334037137675582,
          -3.1110090410049356
        ],
        [
          0.6856885337307179,
          0.021398123463491393,
          0.4654137777957116
        ],
        [
          0.5811842696359243,
          -0.1829137041906592,
          0.4384831358592647
        ],
        [
          -0.025169361187393626,
          -0.22959950284000344,
          -0.5114926002854574
        ],
        [
          -0.47082303101591544,
          0.039328720447324675,
          -0.12452117454741116
        ],
        [
          -0.3514378906822512,
          -0.027633086371608034,
          0.9898264641698571
        ],
        [
          -3.0173583949432183,
          -2.019049596551383,
          4.609377153139109
        ],
        [
          -0.7148905630802099,
          0.8163891084785381,
          -0.7597739837750771
        ],
        [
          -0.0013064346009486652,
          0.09244725507947461,
          -0.7569835986421772
        ],
        [
          -0.8810959209022249,
          0.09461880243170852,
          -0.10723620348487631
        ],
        [
          0.30733388403289397,
          1.0590012399817355,
          -0.4507077245619334
        ],
        [
          -0.477137770693179,
          0.19827244628705612,
          -0.02307532391541395
        ],
        [
          -0.29885612610750767,
          0.14332138459222007,
          0.20516493215338918
        ],
        [
          0.37281687053244716,
          -0.09662332249879425,
          0.4891024410928738
        ],
        [
          -0.138783974560451,
          0.04649965962378565,
          0.5513772890215642
        ],
        [
          0.03251855293036712,
          -0.2588392083115518,
          0.3942690225244861
        ],
        [
          -0.42650278251592955,
          -0.026872468542007852,
          0.6136306360171373
        ],
        [
          -3.4602371054134253,
          -2.508143094723727,
          4.997951345405653
        ],
        [
          -0.6134197070070299,
          0.7278765190878356,
          -0.8283805419279918
        ],
        [
          0.3821299787832434,
          -0.09443731045368604,
          -0.1790394485952679
        ],
        [
          -1.3763547170912271,
          -0.07486693389194646,
          1.3568918570658939
        ],
        [
          -0.21043819778082395,
          -0.3700384060184088,
          1.2086729053767022
        ],
        [
          0.7135499344063426,
          0.10306725060694814,
          -0.6169635131719976
        ],
        [
          -0.3897041326607047,
          0.4656606767704464,
          -1.3465589628280599
        ],
        [
          0.23941413741820564,
          -0.1122598976219449,
          -0.27441438706053606
        ],
        [
          0.6308516076107196,
          -0.3376316680153869,
          0.17076421860890842
        ],
        [
          0.45344115715853534,
          0.19546286297887655,
          -0.2810619218039923
        ],
        [
          -1.0272762290001498,
          -0.3813414029408638,
          0.04294663419199722
        ],
        [
          -3.080106077251025,
          -2.5831933272533094,
          4.055056478631401
        ],
        [
          -0.2520677823528651,
          1.4836944876600209,
          -0.44778506762459835
        ],
        [
          -0.24484642346636176,
          -0.030524749574596024,
          0.008007282729331837
        ],
        [
          0.14356733864504373,
          0.07675212297056799,
          0.8273660519115714
        ],
        [
          -1.152361375109365,
          -0.08650427192657649,
          -0.82775863860002
        ],
        [
          -0.44822485781610427,
          0.19678323335033712,
          0.03393920705399514
        ],
        [
          -0.23196359938265557,
          -0.28402291960551534,
          0.42720274696400873
        ],
        [
          -0.5175572087438093,
          0.19772147278985228,
          0.038526729985902876
        ],
        [
          -0.47968803903398155,
          1.0224246516783906,
          -1.0668640598548313
        ],
        [
          -0.21374576096259149,
          0.056727059682766846,
          0.004434570648646621
        ]
      ]
    },
    {
      "activation": 3,
      "biases": [
        0.17112089144829573,
        0.30837459739411355,
        -0.09766707219906912,
        -0.17444063797978318,
        0.03654319783145382,
        0.06708346848398569,
        0.1077989250004985,
        0.19471710757885338
      ],
      "cols": 8,
      "rows": 3,
      "weights": [
        [
          -0.00804336423858494,
          -0.014467642748059843,
          -0.0013596598151528394,
          -0.0025277395719366094,
          0.12846216801766572,
          0.2309504196029603,
          -0.11904180936093682,
          -0.21392186476157507
        ],
        [
          0.2532354058246657,
          0.4550185493330848,
          -0.393880004693284,
          -0.7078195094273351,
          0.15252208071660095,
          0.27372009701335787,
          -0.01199400271919644,
          -0.021559914879475877
        ],
        [
          0.0791152818131631,
          0.14227221711444865,
          -0.29207709378651936,
          -0.5249532060219317,
          0.23643099885192106,
          0.425039842917134,
          -0.02339193633821922,
          -0.04200970267176347
        ]
      ]
    }
  ]
}
